digraph Tree {
node [shape=box, fontname="helvetica"] ;
edge [fontname="helvetica"] ;
0 [label="Annual Income (k$) <= 77.5\nentropy = 2.023\nsamples = 160\nvalue = [26, 51, 57, 21, 5]"] ;
1 [label="Mortgage <= 113.0\nentropy = 1.538\nsamples = 119\nvalue = [26, 48, 45, 0, 0]"] ;
0 -> 1 [labeldistance=2.5, labelangle=45, headlabel="True"] ;
2 [label="Age <= 57.5\nentropy = 1.205\nsamples = 77\nvalue = [4, 28, 45, 0, 0]"] ;
1 -> 2 ;
3 [label="Annual Income (k$) <= 17.0\nentropy = 1.049\nsamples = 63\nvalue = [3, 15, 45, 0, 0]"] ;
2 -> 3 ;
4 [label="entropy = 0.0\nsamples = 3\nvalue = [3, 0, 0, 0, 0]"] ;
3 -> 4 ;
5 [label="Spending Score (1-100) <= 33.0\nentropy = 0.811\nsamples = 60\nvalue = [0, 15, 45, 0, 0]"] ;
3 -> 5 ;
6 [label="entropy = 0.592\nsamples = 7\nvalue = [0, 6, 1, 0, 0]"] ;
5 -> 6 ;
7 [label="entropy = 0.657\nsamples = 53\nvalue = [0, 9, 44, 0, 0]"] ;
5 -> 7 ;
8 [label="Annual Income (k$) <= 19.5\nentropy = 0.371\nsamples = 14\nvalue = [1, 13, 0, 0, 0]"] ;
2 -> 8 ;
9 [label="Age <= 65.5\nentropy = 1.0\nsamples = 2\nvalue = [1, 1, 0, 0, 0]"] ;
8 -> 9 ;
10 [label="entropy = 0.0\nsamples = 1\nvalue = [0, 1, 0, 0, 0]"] ;
9 -> 10 ;
11 [label="entropy = 0.0\nsamples = 1\nvalue = [1, 0, 0, 0, 0]"] ;
9 -> 11 ;
12 [label="entropy = 0.0\nsamples = 12\nvalue = [0, 12, 0, 0, 0]"] ;
8 -> 12 ;
13 [label="Mortgage <= 207.0\nentropy = 0.998\nsamples = 42\nvalue = [22, 20, 0, 0, 0]"] ;
1 -> 13 ;
14 [label="Age <= 20.5\nentropy = 0.371\nsamples = 14\nvalue = [1, 13, 0, 0, 0]"] ;
13 -> 14 ;
15 [label="entropy = 0.0\nsamples = 1\nvalue = [1, 0, 0, 0, 0]"] ;
14 -> 15 ;
16 [label="entropy = 0.0\nsamples = 13\nvalue = [0, 13, 0, 0, 0]"] ;
14 -> 16 ;
17 [label="Spending Score (1-100) <= 24.5\nentropy = 0.811\nsamples = 28\nvalue = [21, 7, 0, 0, 0]"] ;
13 -> 17 ;
18 [label="Spending Score (1-100) <= 8.0\nentropy = 0.918\nsamples = 6\nvalue = [2, 4, 0, 0, 0]"] ;
17 -> 18 ;
19 [label="entropy = 0.918\nsamples = 3\nvalue = [2, 1, 0, 0, 0]"] ;
18 -> 19 ;
20 [label="entropy = 0.0\nsamples = 3\nvalue = [0, 3, 0, 0, 0]"] ;
18 -> 20 ;
21 [label="Spending Score (1-100) <= 72.5\nentropy = 0.575\nsamples = 22\nvalue = [19, 3, 0, 0, 0]"] ;
17 -> 21 ;
22 [label="entropy = 0.0\nsamples = 18\nvalue = [18, 0, 0, 0, 0]"] ;
21 -> 22 ;
23 [label="entropy = 0.811\nsamples = 4\nvalue = [1, 3, 0, 0, 0]"] ;
21 -> 23 ;
24 [label="Mortgage <= 42.0\nentropy = 1.659\nsamples = 41\nvalue = [0, 3, 12, 21, 5]"] ;
0 -> 24 [labeldistance=2.5, labelangle=-45, headlabel="False"] ;
25 [label="Annual Income (k$) <= 100.0\nentropy = 1.21\nsamples = 25\nvalue = [0, 0, 3, 17, 5]"] ;
24 -> 25 ;
26 [label="Annual Income (k$) <= 80.0\nentropy = 0.65\nsamples = 18\nvalue = [0, 0, 3, 15, 0]"] ;
25 -> 26 ;
27 [label="Spending Score (1-100) <= 80.5\nentropy = 1.0\nsamples = 6\nvalue = [0, 0, 3, 3, 0]"] ;
26 -> 27 ;
28 [label="entropy = 0.0\nsamples = 3\nvalue = [0, 0, 3, 0, 0]"] ;
27 -> 28 ;
29 [label="entropy = 0.0\nsamples = 3\nvalue = [0, 0, 0, 3, 0]"] ;
27 -> 29 ;
30 [label="entropy = 0.0\nsamples = 12\nvalue = [0, 0, 0, 12, 0]"] ;
26 -> 30 ;
31 [label="educational-num <= 11.5\nentropy = 0.863\nsamples = 7\nvalue = [0, 0, 0, 2, 5]"] ;
25 -> 31 ;
32 [label="entropy = 0.0\nsamples = 5\nvalue = [0, 0, 0, 0, 5]"] ;
31 -> 32 ;
33 [label="entropy = 0.0\nsamples = 2\nvalue = [0, 0, 0, 2, 0]"] ;
31 -> 33 ;
34 [label="Mortgage <= 128.5\nentropy = 1.42\nsamples = 16\nvalue = [0, 3, 9, 4, 0]"] ;
24 -> 34 ;
35 [label="entropy = 0.0\nsamples = 5\nvalue = [0, 0, 5, 0, 0]"] ;
34 -> 35 ;
36 [label="Annual Income (k$) <= 100.0\nentropy = 1.573\nsamples = 11\nvalue = [0, 3, 4, 4, 0]"] ;
34 -> 36 ;
37 [label="Mortgage <= 187.0\nentropy = 1.371\nsamples = 5\nvalue = [0, 3, 1, 1, 0]"] ;
36 -> 37 ;
38 [label="entropy = 0.0\nsamples = 1\nvalue = [0, 0, 1, 0, 0]"] ;
37 -> 38 ;
39 [label="entropy = 0.811\nsamples = 4\nvalue = [0, 3, 0, 1, 0]"] ;
37 -> 39 ;
40 [label="Mortgage <= 294.0\nentropy = 1.0\nsamples = 6\nvalue = [0, 0, 3, 3, 0]"] ;
36 -> 40 ;
41 [label="entropy = 0.0\nsamples = 3\nvalue = [0, 0, 0, 3, 0]"] ;
40 -> 41 ;
42 [label="entropy = 0.0\nsamples = 3\nvalue = [0, 0, 3, 0, 0]"] ;
40 -> 42 ;
}